<?xml version="1.0"?>
<opencv_storage>
<stage2>
  <maxWeakCount>7</maxWeakCount>
  <stageThreshold>-3.8006308674812317e-01</stageThreshold>
  <weakClassifiers>
    <_>
      <internalNodes>
        0 -1 85394 2.4760449305176735e-03</internalNodes>
      <leafValues>
        -6.2318837642669678e-01 7.6785713434219360e-01</leafValues></_>
    <_>
      <internalNodes>
        0 -1 58110 -5.8994479477405548e-02</internalNodes>
      <leafValues>
        9.8723232746124268e-01 -4.6733620762825012e-01</leafValues></_>
    <_>
      <internalNodes>
        0 -1 26726 2.1131977438926697e-02</internalNodes>
      <leafValues>
        5.8867126703262329e-01 -8.9003694057464600e-01</leafValues></_>
    <_>
      <internalNodes>
        0 -1 99280 -6.1225108802318573e-03</internalNodes>
      <leafValues>
        9.7433406114578247e-01 -4.4422236084938049e-01</leafValues></_>
    <_>
      <internalNodes>
        0 -1 70640 -4.8962179571390152e-03</internalNodes>
      <leafValues>
        9.7227150201797485e-01 -4.4455817341804504e-01</leafValues></_>
    <_>
      <internalNodes>
        0 -1 19364 -4.8916914238361642e-05</internalNodes>
      <leafValues>
        -9.9034225940704346e-01 5.0231868028640747e-01</leafValues></_>
    <_>
      <internalNodes>
        0 -1 19364 6.9413224991876632e-05</internalNodes>
      <leafValues>
        5.0825208425521851e-01 -9.5829218626022339e-01</leafValues></_></weakClassifiers></stage2>
</opencv_storage>
